79.082,29.785,-7.9217,-77.041,-151.02,-44.649,45.518,60.3,74.74,-68.881,-32.815,-31.325,-89.758,-70.926,-121.75,-141.96,-0.8972,2.8415,-13.476,-65.169,16.113,59.873,76.497,13.359,6.0985,47.299,-90.642,-151.04,-43.306,28.424,42.034,64.368,-69.802,-44.662,33.567,17.773,-76.396,-122.68,-141.63,-122.46,-19.818,-20.757,-63.983,15.483,32.435,45.134,5.0052,3.2478,40.765,90.987,15.372,-34.62,-100.33,-95.527,-140.97,-165.18,-9.2118,-15.814,-36.164,-81.159,-3.6106,48.631,53.971,-3.3558,-12.816,28.933,57.535,52.735,-34.111,-31.768,13.862,117.83,47.676,-92.606,-49.815,6.1387,-90.011,-140.58,-160.59,-135.19,-27.079,-29.338,-77.533,0.12006,19.157,29.602,-1.2899,-8.1226,25.436,84.427,-1.507,-22.389,-24.129,7.2878,43.482,7.5557,-88.011,-47.906,6.9346,38.105,15.351,-21.971,-23.96,-69.859,-76.804,-41.167,-1.5683,-13.873,-88.282,-86.698,-47.083,52.511,-15.136,-133.06,-91.489,-44.205,42.031,86.13,-102.24,-111.59,-69.998,61.53,193.82,36.662,-5.982,-43.018,-37.166,-44.311,-7.3566,47.677,-29.707,-51.156,-54.146,-17.752,14.995,-18.947,-106.93,-68.956,-17.223,12.362,-7.1949,-78.541,-78.031,-45.664,-43.372,-5.1219,79.813,41.666,-22.107,-71.361,-62.737,-1.821,-66.699,-173.82,-129,-80.881,-13.667,35.44,-143.14,-150.53,-103.75,12.655,130.9,-16.024,-43.441,-75.538,-35.414,140.72,27.741,20.492,-35.761,-55.614,63.306,-30.866,-15.568,-28.126,-125.85,-88.114,-36.412,-12.094,-37.809,-97.004,-98.088,-63.089,-62.376,-28.451,53.922,23.493,-34.964,-86.62,-76.591,95.541,99.078,20.659,-92.849,-83.728,29.96,54.635,29.917,-110.6,-102.17,-27.243,86.645,-59.741,-80.849,-106.93,-72.442,98.892,-7.5922,-18.451,-69.912,-87.479,29.892,-58.07,-42.603,-56.29,-96.01,45.804,-19.158,-26.804,-20.745,-101.22,9.14,-17.582,-44.819,-56.236,9.3785,-16.264,-65.509,-117.52,-103.3,57.17,57.317,-16.281,-121.77,-104.85,-0.39821,25.989,2.7351,-128.75,-119.89,42.429,37.919,44.708,-113.94,-125.95,43.944,18.27,10.622,-113.06,-158.6,-81.907,77.064,-32.908,-9.1841,-32.775,-82.554,102.66,27.754,20.921,19.593,-79.884,58.404,34.041,0.8207,-27.947,-151.69,-105.25,-144.63,-157.38,-180.15,-20.09,-26.459,-28.718,-44.969,-50.715,20.405,62.501,29.723,-125.59,-113.77,82.18,85.972,87.538,-104.95,-114.1,92.052,63.605,42.821,-93.006,-146.88,-101.46,-106.08,-125.8,-202.9,-261.38,-27.534,-42.229,-46.828,-34.478,-37.339,14.062,-12.025,-80.39,-73.575,63.826,31.618,65.449,95.323,46.783,65.028,-25.192,-65.775,20.852,-29.877,-31.815,-68.973,-21.917,7.9206,10.343,49.52,-15.631,-2.8411,-19.456,36.581,47.354,-104.86,-86.794,49.586,12.888,1.815,54.509,23.328,44.366,30.545,-23.903,-5.6769,-46.025,-47.312,45.394,67.42,-12.036,-2.2107,39.527,34.168,80.899,-38.833,17.541,31.233,39.415,-0.0040941,-41.287,-76.212,-1.2679,-63.78,-49.757,-73.646,-34.379,-7.2248,-3.3693,36.604,-11.259,-5.314,-25.611,18.469,43.371,66.852,11.338,-7.6533,7.8018,60.537,77.641,15.975,-8.2754,-38.444,2.7559,-32.434,-75.376,-75.955,21.877,40.298,-31.599,-20.522,18.026,16.654,67.996,-49.043,-6.6596,14.745,29.739,-3.6524,-33.708,-16.431,28.07,74.946,1.0215,-31.296,-53.446,-21.506,37.984,-14.524,-45.4,-41.971,-62.664,-19.88,-3.8055,35.471,-9.2781,-41.831,-20.785,21.05,50.445,-6.8338,-28.685,-55.714,-20.17,44.961,69.07,-24.079,-32.226,-52.624,1.7829,119.69,76.924,3.1916,-68.85,-50.07,-9.6683,11.417,29.192,7.4514,-31.172,-13.336,31.173,86.604,13.017,-14.208,-40.067,-11.016,58.445,0.44688,-11.731,-11.285,-41.352,-34.847,-68.291,91.798,19.727,-57.669,-105.2,-63.525,13.808,-33.185,-53.41,-76.843,-47.881,17.689,38.124,-43.279,-51.747,-70.382,-19.467,94.943,50.27,-13.588,-83.877,-10.143,91.791,70.126,20.18,-22.85,-53.581,6.8102,-1.4466,29.256,9.5679,-17.753,-39.862,-10.778,54.522,-7.5617,-5.6301,-9.5282,-40.508,-34.344,-70.82,92.695,29.162,-54.646,-91.406,-56.065,106.59,64.362,17.761,-97.715,-73.134,30.563,62.358,45.246,-86.321,-103.62,-30.61,87.999,41.995,-20.864,-94.889,-16.558,83.925,65.801,16.932,-22.424,-55.266,3.6325,1.6424,31.25,0.46971,-68.766,4.1303,-20.148,-42.602,-6.2025,-45.378,1.5159,36.213,-29.796,-46.831,88.561,28.225,-54.399,-93.517,-58.857,110.08,67.291,20.424,-91.353,-74.376,38.516,69.436,41.741,-82.603,-93.917,23.136,-2.4709,38.659,-79.251,-74.78,78.038,13.06,-3.1085,-82.068,-104.29,-35.874,36.459,38.086,64.078,36.851,-50.327,38.541,16.636,-11.499,20.675,-22.571,39.457,79.586,10.205,-16.941,-39.775,-27.818,-75.127,-54.903,-120.23,-5.6343,-0.95301,-16.131,-30.547,-19.886,75.728,110.9,79.73,-69.004,-83.95,60.021,29.234,71.26,-60.57,-55.978,125.72,57.589,33.587,-55.225,-83.873,-35.885,-9.5335,-71.959,-139.37,-177.03,-12.424,-26.48,-15.316,-40.095,-34.137,27.912,-19.959,-62.683,28.249,96.171,37.334,38.058,66.846,106.49,51.358,-12.589,-56.753,5.1223,89.523,89.177,-97.446,-97.792,-8.151,10.431,-22.498,-36.493,-47.391,-48.478,12.12,1.9002,-75.552,11.789,78.109,43.817,-7.5552,40.05,87.437,42.785,13.759,11.908,-19.021,70.289,68.533,133.62,58.2,-26.631,6.2246,-25.156,-66.847,-21.506,-60.679,-1.1196,-7.0246,-61.836,-78.28,-22.058,-66.282,-23.42,59.233,78.88,-89.485,-105.08,-25.595,2.0037,-32.392,-24.357,-44.862,-49.038,7.1258,3.6322,57.216,5.5133,8.5924,55.386,39.343,10.255,4.6049,18.747,38.714,50.404,-44.011,43.514,57.196,123.73,43.112,-37.957,-1.0805,-36.413,-74.345,-22.833,-65.232,-6.7538,-8.371,-52.021,-72.401,-8.172,40.842,28.807,43.997,-61.917,2.6758,22.147,38.506,48.958,-39.118,-51.073,-68.55,-76.596,-25.359,-29.445,39.635,-13.739,-15.086,27.815,14.675,1.1885,-12.702,-0.90503,21.618,30.261,21.143,29.022,55.579,7.2648,-20.421,2.1162,47.069,73.179,10.152,-19.77,-64.344,-7.6549,-8.6528,-56.684,-66.728,-1.1999,50.027,38.398,61.186,-38.028,12.932,39.562,47.408,67.907,-21.212,73.187,31.528,1.6722,-45.993,-47.457,88.387,28.725,-3.372,-103.44,-67.431,-17.099,-23.428,-6.1208,7.3074,8.7235,12.574,17.888,43.979,-6.5247,-38.917,-3.0889,33.319,66.552,4.9215,-26.562,-12.745,31.618,45.858,18.848,-40.326,4.4707,-13.28,5.5589,8.9928,-1.5554,12.424,37.045,39.993,53.998,-39.031,70.115,25.161,-4.2447,-47.301,-50.337,94.995,33.505,0.62929,-90.423,-63.973,69.252,43.522,-9.7502,-88.166,-21.835,26.228,30.958,24.618,-51.301,-46.849,8.3677,48.671,83.307,21.099,-11.005,1.4438,50.29,69.345,35.181,-21.707,24.301,6.3069,32.457,30.417,14.08,3.3713,-22.002,-22.767,-38.842,-42.283,-18.979,8.836,-4.3942,-43.963,-37.011,114.36,53.553,15.581,-81.215,-57.488,88.146,65.177,6.8954,-67.594,-10.852,52.028,51.549,45.133,-31.69,-21.045,3.644,-14.462,-13.867,-36.278,3.9872,17.245,-19.91,-7.3303,-28.626,-58.495,31.667,15.897,47.692,40.543,17.657,13.517,-9.9549,-12.824,-34.899,-43.23,-9.1014,27.707,8.0757,-32.038,-27.98,50.485,64.116,64.897,-3.1401,-42.199,18.363,26.239,18.039,9.2093,4.3421,69.625,67.038,54.991,-30.092,-18.489,13.391,-6.7982,-6.2501,-35.446,9.0226,33.826,-8.6037,9.5866,-18.994,-49.255,86.682,29.705,-9.7329,-78.436,-77.948,19.486,13.332,8.4607,-17.722,-16.31,85.981,75.268,0.26248,72.681,90.496,123.27,121.43,69.741,175.44,94.229,81.087,10.832,68.401,134.01,107.72,-72.253,-149.13,-95.979,-45.6,-97.447,-42.933,-118.45,-110.05,-68.981,-90.384,-15.568,66.545,88.866,71.607,60.364,59.954,170.6,98.235,99.099,132.19,54.33,129.79,111.26,107.48,113.3,-101.84,-45.128,-88.912,-137.61,-64.17,-115.78,-68.906,-83.96,-129.9,-71.583,122.41,45.22,95.244,188.42,152.72,-42.594,-136.92,-79.005,-12.727,-74.66,0.99102,-86.009,-84.966,-33.642,-57.349,15.048,-25.75,6.7376,19.543,-9.1537,-0.54147,0.35303,57.089,59.767,42.946,81.717,181.88,157.67,149.85,159.75,-86.718,-9.6639,-60.709,-121.85,-30.073,-87.249,-41.62,-50.461,-94.577,-29.178,-1.1169,20.409,3.784,-49.434,-26.589,49.231,60.772,52.896,-4.8505,8.6667,-11.876,-105.78,-97.25,-50.095,-72.97,15.659,-30.281,1.3697,14.334,-7.0855,9.2428,6.4484,56.725,58.393,36.956,69.48,17.318,68.329,61.378,24.392,92.921,21.758,17.446,-3.616,-21.499,-87.434,-39.658,-55.112,-102.54,-38.42,10.594,31.736,17.725,-39.985,-19.365,69.035,75.366,59.887,12.59,21.002,73.524,76.492,50.793,-10.483,55.675,19.462,8.7189,-2.8432,-50.625,89.2,-7.2059,-11.879,34.462,41.44,9.6792,54.29,6.6149,49.563,43.781,10.369,80.367,7.1588,5.5855,-6.3084,-18.426,72.81,11.005,-22.879,-22.281,-54.584,114.91,14.419,-37.419,-33.851,-26.11,48.438,54.597,35.085,-13.479,-6.8808,55.481,55.691,31.915,-23.72,35.691,16.498,6.3435,0.82176,-53.428,72.895,-16.606,-0.59011,-34.608,-71.232,74.883,-29.363,-26.4,-8.6225,3.4001,87.342,85.263,4.2997,9.5527,-0.81063,-15.648,85.116,17.758,-21.385,-17.223,-57.201,128.07,27.188,-11.976,-20.978,-9.4285,126.39,34.754,-47.301,-62.003,-55.7,133.91,58.146,-38.022,-2.6634,-12.596,22.224,13.332,6.9748,-54.48,73.902,-10.828,5.4147,-29.413,-59.181,84.623,-1.1408,-3.5504,16.531,19.336,100.61,-33.694,-49.055,-38.509,1.5354,89.623,-24.62,13.573,3.9777,38.922,84.887,71.88,-34.12,-78.176,-91.071,-75.663,85.582,-15.423,-95.855,-114.67,-118.53,91.028,14.255,-86.968,-46.378,-60.058,192.12,168.83,152.59,98.728,106.02,68.899,96.789,101.04,99.491,67.511,-55.018,-61.806,-38.646,-33.849,46.612,-75.145,-89.555,-88.017,-46.095,46.894,-60.056,-18.079,-32.093,-0.83939,50.668,174.73,122.98,130.52,81.182,89.544,103.95,102.86,70.321,48.303,27.914,0.037676,-6.7967,-7.2687,-36.327,-119.38,66.22,39.341,38.031,93.008,0.50994,94.359,91.499,87.983,139.1,17.201,-50.92,-124.4,-71.507,-10.982,-70.561,-36.183,-98.237,-42.014,5.3464,-42.443,5.0319,-14.233,-90.759,-33.831,-6.77,37.917,101.79,20.149,43.901,67.54,93.864,149.34,41.086,-6.1034,51.973,-66.877,-2.8422,-56.451,-154.65,-79.933,-39.362,15.28,-28.679,-84.692,-31.384,87.483,83.984,64.112,120.74,-20.89,-66.446,-153.92,-91.29,-25.43,-97.606,-45.806,-116.66,-59.26,-2.7614,-65.173,-17.948,-36.62,16.071,51.422,16.288,-15.747,-0.81927,80.219,91.171,84.743,68.244,132.98,14.695,-39.003,31.331,-91.219,-17.381,-76.455,-193.67,-104.05,-57.348,8.3301,-50.923,-103.17,-36.797,13.002,57.585,32.241,-16.89,-26.186,74.912,97.699,102.49,20.577,1.5084,-75.845,-150.9,-89.232,-32.393,-97.005,-31.015,-51.208,1.0638,34.93,0.30047,-29.297,-10.704,59.517,71.153,66.327,19.845,-36.275,63.397,112.1,77.909,76.11,-51.532,-11.784,45.761,36.108,-105.68,-40.12,-94.201,-146.91,-95.789,-22.518,23.212,-6.6531,-46.892,-60.747,38.298,59.954,60.803,-15.121,-32.813,47.198,98.876,73.981,27.552,59.433,-26.387,37.541,27.578,19.302,90.389,-56.578,-44.199,22.404,35.013,35.557,-5.3183,-58.607,39.478,82.692,53.405,53.952,-70.585,-29.452,26.945,25.07,102.52,-53.622,-15.091,-2.7409,-1.0272,60.118,-34.625,-36.405,-23.274,-37.217,2.9477,22.141,30.606,-44.256,-72.053,22.549,70.552,52.444,3.9054,27.909,-41.86,16.361,15.119,3.7797,65.482,-29.966,-12.423,-5.4878,-48.511,74.276,-52.695,-35.21,-39.928,-20.177,54.948,56.995,-75.907,-29.179,27.476,29.125,111.5,-49.288,-9.4184,-0.27445,0.67076,65.988,-22.56,-17.721,-5.2192,-12.896,101.94,1.9453,-42.685,-48.085,-56.823,65.167,15.974,-55.153,-23.458,-35.855,-36.282,22.762,23.106,5.0975,71.189,-20.248,-4.0441,3.8039,-39.539,83.481,-32.62,-12.631,-15.268,-2.7515,75.415,-54.956,-52.927,-61.537,-6.0924,80.148,-64.866,-29.542,-41.141,18.341,66.639,44.909,-56.478,-56.218,-45.656,-49.786,88.003,-28.184,-76.028,-80.961,-91.952,48.053,-11.801,-76.604,-49.781,-64.041,79.067,55.917,78.496,89.154,106.85,22.52,49.449,66.303,89.635,88.598,-73.743,-56.042,-54.99,-40.426,34.304,-92.818,-87.05,-94.964,-38.825,50.095,-93.291,-57.385,-70.917,-7.6578,47.444,55.296,70.838,94.348,129.54,158.71,59.463,84.906,86.167,95.212,70.177,11.77,73.117,90.177,22.396,-54.953,40.468,30.931,66.037,121.25,42.165,107.54,132.04,41.219,48.96,14.486,-22.712,-72.56,-44.481,-10.124,-14.716,-82.713,-54.118,-28.21,-46.403,-55.503,112.88,44.71,-23.673,-6.1144,-17.096,86.44,151.37,87.551,53.601,28.168,69.033,84.813,53.346,-30.917,-20.008,-27.828,14.175,17.932,-120.02,-110.3,-9.2559,-19.776,-19.76,-23.627,-30.227,108.95,132.61,37.264,40.223,9.4098,-18.621,-66.582,-35.725,-3.5792,-7.28,-62.096,-37.261,-8.1284,-40.723,-38.378,-26.741,21.549,42.725,26.207,7.8486,-56.013,30.159,32.183,-1.6392,-17.314,63.704,56.389,37.174,-36.551,-26.182,-31.116,1.5209,7.2059,-121.6,-105.71,2.7889,-26.313,-19.827,-12.346,-14.213,53.316,44.848,28.375,17.593,18.931,44.309,13.049,3.852,20.728,43.552,-55.152,-33.526,-1.3274,-34.699,-34.042,-8.8803,48.865,55.109,40.513,24.141,-27.315,52.916,48.984,12.172,-2.295,-51.414,-29.068,19.12,35.967,67.313,-34.791,-94.449,-22.449,33.667,55.371,-18.225,-53.007,-43.35,-36.904,-43.974,29.848,23.141,12.099,-1.6135,4.461,31.752,-6.8848,-15.487,14.006,28.861,-5.1574,15.86,50.416,44.341,2.7976,-42.478,13.819,38.396,64.568,39.755,-35.761,47.833,50.832,13.454,-1.216,-45.525,-28.789,19.499,36.82,76.58,-28.207,-89.18,-16.181,39.864,70.926,-12.103,-87.912,7.333,37.088,60.26,-48.355,-11.913,15.734,32.273,5.3047,24.409,-8.7372,-17.046,5.9855,13.408,-9.2094,8.4154,50.685,41.549,-1.651,-40.04,12.103,40.709,64.049,44.817,-19.873,15.881,37.733,5.0715,-12.296,-4.9813,11.138,-8.918,9.7979,-40.262,-18.015,-79.156,-2.1249,51.498,96.317,0.92739,-73.677,24.007,56.91,82.991,-24.227,6.9961,40.168,56.624,33.827,-2.7345,-24.845,-13.621,-14.579,16.23,-46.438,-31.125,-11.806,0.66673,22.282,-27.078,20.393,64.548,79.45,55.646,-6.917,36.655,60.208,25.639,4.5148,14.82,36.383,15.124,34.636,-16.931,-39.652,-36.309,-5.114,-12.876,-4.812,-39.366,-20.804,2.5687,13.162,0.28873,-24.12,10.901,50.522,71.173,48.405,5.752,-17.63,-7.9238,-5.1085,35.921,-36.137,-16.36,-1.7671,17.923,44.473,-67.057,-67.887,32.026,54.48,48.232,-13.002,-14.391,5.2645,10.061,17.499,18.635,42.304,22.497,46.058,-16.265,-41.983,-35.346,7.8667,-10.046,3.3962,-39.107,-10.588,18.028,25.479,11.082,2.1017,22.44,20.098,68.771,90.417,0.8822,7.0164,14.17,24.2,28.798,-67.962,8.9225,15.9,-104.09,-108.08,-11.233,26.799,-13.56,25.982,75.023,50.836,13.902,-62.369,-42.99,-25.883,89.9,4.9291,21.54,13.082,1.3392,19.832,26.141,53.62,-6.2868,-5.2714,31.501,-85.622,-80.827,-32.763,-40.512,-3.5972,56.707,108.54,68.614,0.37666,-45.457,-21.129,0.70342,-57.529,-66.779,32.329,33.77,21.339,-39.226,-43.589,71.933,13.268,14.634,27.326,46.567,21.433,-14.437,-93.384,-74.931,-55.126,63.639,-19.331,-6.1087,-8.9499,-22.867,10.791,10.038,29.683,-33.256,-25.585,-9.5143,99.363,34.091,-22.007,-38.561,-21.752,51.823,3.2279,-43.534,-44.098,-67.596,-55.295,-30.568,-80.85,-93.436,7.5878,3.7819,-6.8576,-60.031,-58.093,54.175,-17.967,-10.775,10.165,39.9,61.999,-4.5673,-19.646,24.757,57.791,21.749,-32.439,-26.909,17.74,77.123,8.138,6.7781,22.194,-40.19,-32.087,-7.2171,101.94,37.161,-24.801,-39.776,-13.021,64.177,8.5962,-40.155,-34.528,-70.991,-12.184,-36.065,-36.517,-17.934,-94.662,-92.409,-35.952,26.226,75.574,4.4412,-61.412,-52.642,-34.581,-9.7257,20.913,-37.332,-56.263,-9.1556,21.331,-7.7949,-58.685,-50.643,-5.0817,43.042,-49.767,-50.042,-28.357,46.186,36.112,-50.444,9.3009,58.109,114.96,8.5686,-17.711,63.753,18.008,-32.499,-29.372,-63.289,-9.4232,-28.384,-25.886,-5.8506,-84.318,-81.78,-28.961,32.018,83.84,-105.57,-76.464,-5.2879,74.789,92.238,-108.59,-67.535,10.949,33.792,13.652,-16.904,-64.092,-63.694,-22.886,17.755,-64.661,-59.885,-40.441,30.153,10.616,-58.929,-8.6831,44.389,99.787,-12.115,-41.813,35.803,54.824,64.89,-47.967,-26.09,-3.1176,-20.849,26.044,-74.7,-77.575,-73.756,-21.956,38.543,88.395,-99.223,-66.144,2.1267,83.095,97.457,-98.646,-60.169,16.212,44.194,20.339,-108.35,-71.914,15.279,16.374,36.459,-143.53,-104.66,-1.2539,17.562,69.934,-63.314,-7.4536,41.486,98.734,-20.409,-37.608,36.664,51.692,60.38,-54.274,-22.72,0.55597,-21.11,26.685,-72.694,-24.704,-28.227,-9.1558,-6.7781,-84.325,-41.976,-24.538,23.729,39.787,-65.462,-86.497,-38.785,50.74,88.706,53.86,-91.505,-50.119,53.278,48.342,73.801,-132.24,-78.068,38.043,57.762,120.34,-190.19,-158.94,-71.219,-27.462,-12.867,-27.028,-28.067,-25.29,-21.338,-13.398,9.3249,32.107,9.7394,62.66,-56.62,4.9497,0.24221,28.886,27.387,-69.014,-11.95,7.0006,66.353,84.383,-31.461,-112.95,-74.913,-54.563,-20.354,-61.891,-28.767,-25.639,-17.886,-0.54163,3.8521,56.076,75.635,24.359,-63.188,-0.33351,35.494,98.605,37.015,4.2994,119.3,21.373,-75.326,-108.7,-81.97,-34.553,38.46,25.233,-13.285,-22.457,-36.825,16.696,66.089,48.136,0.32487,-8.15,3.1843,-83.542,-6.7441,112.49,113.44,22.727,-10.959,127.36,153.38,108.77,-141.47,-107.57,-43.267,-40.993,10.577,-45.08,-45.197,-40.261,24.75,54.85,22.234,-20.276,-17.303,72.752,86.57,38.038,-72.756,-112.77,-82.894,-26.649,52.677,26.136,-6.7851,-18.661,-27.823,38.464,72.331,59.782,14.21,6.4782,31.437,72.476,45.076,-29.361,-29.769,33.993,45.21,-8.6973,-73.022,-76.373,-136.73,-104.06,-40.906,-37.946,23.723,-23.983,-29.195,-38.268,29.282,75.667,47.304,1.4683,-1.9497,86.811,111.53,37.349,-45.488,-53.623,74.399,103.32,-31.249,-102.94,-101.29,41.893,137.02,13.815,43.753,32.436,-9.7632,-20.055,12.822,57.186,25.737,-44.08,-46.613,20.659,36.394,-17.115,-78.522,-81.645,22.195,-4.6876,-78.862,-77.316,-57.863,14.988,-21.668,-45.963,32.071,60.722,-11.221,-47.784,-54.387,25.755,46.475,-6.2614,-77.344,-90.427,19.922,52.067,-49.252,-116.74,-119.19,0.59426,92.827,-117.83,-121.02,-98.043,112.24,95.825,-91.575,-19.919,19.413,193.56,47.157,-10.695,20.511,-37.172,-96.251,-101.9,-2.465,-18.135,-91.365,-85.698,-69.961,-12.678,-32.978,-56.391,15.549,47.185,-20.146,-67.242,30.463,94.015,91.716,-28.844,-72.741,28.713,62.751,62.498,-87.693,-149.64,-156.63,-41.267,30.907,-144.49,-144.8,-125.47,66.889,45.162,-109.7,-47.353,-11.711,137.31,6.2815,-40.27,25.081,33.15,169.66,-2.3151,-32.194,-2.9662,2.892,83.146,-30.454,-56.427,-57.287,-82.244,-17.14,11.963,-66.561,-92.169,1.5974,62.366,58.527,-70.892,-92.112,5.6161,37.486,32.083,-74.773,-85.243,68.045,81.035,72.228,-102.68,-74.446,42.832,66.387,71.021,-154.59,-92.093,-59.522,81.63,-48.901,-73.572,-16.044,-7.8585,120.83,-47.431,-61.028,-38.212,-34.053,50.128,-64.995,-2.7917,7.8921,8.2466,67.595,-62.617,-26.054,-2.0464,3.7099,43.056,-42.667,-60.234,-92.985,26.412,57.962,51.395,-53.091,-76.084,105.09,117.36,99.611,-81.948,-66.336,72.468,102.62,99.135,-196.12,-166.75,-66.736,-49.826,-35.718,-24.352,-31.464,-26.959,-24.996,-24.765,-51.483,-33.04,-20.689,84.964,-66.617,21.228,35.454,37.093,108.24,-53.303,-5.9642,27.297,28.787,80.485,-24.779,-143.35,-123.08,-98.299,-69.312,-122.87,-35.4,-31.79,-32.123,-24.985,-20.783,15.071,-90.892,-143.76,-197.25,-97.677,81.707,-19.418,-85.686,-114.11,-24.347,55.578,-139.64,-110.4,-113.56,-61.375,130.58,42.847,50.074,18.336,30.026,111.03,80.552,84.818,66.805,35.421,-191.74,-223.76,-96.954,-35.111,-56.912,-118.59,-131.51,-24.799,1.0525,0.47383,-137.75,-134.53,-71.464,-31.437,-35.092,32.296,7.9352,22.297,121.49,131.01,68.157,49.322,20.236,135.98,201.56,-21.153,-182.84,-159.61,-161.36,-109.25,65.036,2.9354,11.852,-20.476,-13.282,55.088,45.833,42.772,27.406,-2.0412,66.026,0.55972,13.052,8.9475,-31.747,79.639,12.02,4.5036,-27.181,-58.892,-200.93,-194.41,-132.02,-91.653,-89.268,-25.833,-45.779,-37.781,59.068,73.498,12.037,-1.0298,-28.929,89.194,148.81,-14.46,-19.177,-57.191,35.369,83.756,-22.95,-57.149,-82.62,51.094,110.83,-19.57,-2.8834,-2.968,-16.941,-48.762,-2.236,-38.573,-21.34,-18.361,-63.809,19.64,-23.68,-31.478,-51.302,-78.046,34.821,-13.057,-47.945,-67.032,-46.949,47.361,-31.768,-30.509,7.3594,58.941,-57.753,-64.699,-91.226,19.523,73.704,-68.239,-62.268,-101.39,-18.522,30.347,-69.063,-94.511,-113.47,5.4579,64.514,-85.161,-111.87,-82.167,57.699,39.349,-57.415,-27.082,21.903,113.2,12.741,-15.739,-47.694,-59.787,-71.451,-96.169,7.8118,-28.799,-60.732,-82.714,-61.718,22.831,-39.734,-42.255,1.7053,54.905,-24.976,-59.463,-15.307,36.906,78.932,-11.781,-87.824,-0.43809,30.463,67.516,-119.29,-135.03,-146.96,-30.737,32.522,-115.78,-144.11,-109.23,25.682,8.1944,-82.361,-51.094,3.685,87.654,-15.444,-65.531,-10.378,36.802,116.11,-35.585,-51.832,-25.179,24.069,89.968,-30.367,-12.943,-64.521,-63.306,-24.662,21.947,-60.66,-82.12,-35.232,16.967,59.535,-32.142,-105.91,-17.201,11.481,48.92,-57.786,-62.106,41.207,83.009,53.272,-78.844,-125.38,-2.3605,32.465,10.911,-122.12,-92.305,-43.429,36.5,-60.469,-98.687,-44.744,4.1934,82.495,-66.067,-81.702,-52.643,-2.5271,62.129,-54.339,-25.218,19.742,-3.272,73.282,-41.286,-69.461,-28.336,-40.74,0.79908,-77.39,-7.4236,-108.35,-5.5414,30.356,75.842,-33.272,-47.786,76.825,123.81,90.532,-48.382,-116.73,24.948,70.115,46.088,-99.473,-215.64,-122.24,-90.103,-88.871,-34.072,-39.857,-44.006,-36.381,-32.571,-76.34,-38.041,15.56,96.819,-40.48,2.7372,54.822,31.903,119.6,-20.532,-45.451,8.6615,-1.3976,42.291,-58.138,-190.86,-146.8,-131.37,-117.75,-178.21,-53.131,-42.479,-38.484,-39.796,-34.84,11.19,-17.681,-87.493,1.1665,117.03,-12.619,2.8814,23.171,49.572,128.36,-50.708,-98.612,-29.304,-1.2183,110.75,-11.905,87.738,84.045,56.772,107.18,-46.192,40.8,61.371,47.878,20.455,-136.26,-37.001,65.765,32.808,-26.033,-42.664,-5.3729,67.896,44.454,-3.5688,-98.521,-61.272,42.312,136.86,8.6936,4.129,-8.033,46.146,239.77,205.43,-19.876,-23.724,-40.733,72.779,114.6,-42.529,-90.258,-22.257,0.9158,118.97,5.1001,95.368,90.924,63.395,126,-3.7431,63.153,75.275,67.304,43.614,-64.668,-9.7197,30.701,5.4879,-4.481,-99.46,-34.177,-44.324,-50.094,-58.042,-89.571,-64.181,28.282,128.67,17.787,10.68,-9.1601,45.165,237.69,214.05,-0.40642,-5.2886,-27.083,87.884,131.83,-39.844,-63.167,-72.809,24.155,56.984,-116.19,-120.48,-115.39,4.6686,11.214,4.8159,74.933,91.811,93.662,63.001,-43.979,14.457,51.763,36.14,20.462,-63.379,-6.9172,-9.3712,-10.987,-18.956,-49.492,-30.442,-29.321,-39.341,0.52462,-97.978,-74.147,-42.161,-64.474,6.2338,34.485,30.538,3.7194,130.76,186.65,3.6708,-17.505,-34.59,65.222,107.93,-60.567,-67.21,-68.992,54.738,68.648,-80.305,-95.191,-47.369,43.624,-17.76,-92.231,-114.69,-42.648,-37.915,-65.84,-51.082,12.366,19.136,14.135,4.5452,-25.927,-9.3923,-0.034536,-9.2316,34.053,-64.429,-46.787,-15.387,-33.02,38.204,-60.851,-27.523,-34.432,-31.606,71.301,-109.52,-75.708,-42.173,3.3129,78.607,-31.537,-40.874,-47.529,80.647,106.91,-46.096,-61.873,-16.913,72.743,19.181,-61.174,-80.372,-9.4527,-6.713,-28.99,-77.698,-72.84,16.777,37.151,-55.418,-89.983,-43.239,29.723,45.645,-7.4615,-65.231,-45.221,-7.9088,-32.959,42.567,-62.55,-24.811,-30.924,-26.96,76.344,-100.95,-69.037,-30.335,17.975,90.023,-103.29,-78.508,-5.5306,46.454,97.58,-124.31,-94.353,-1.3844,7.948,36.753,-54.592,-80.035,-10.047,-5.7795,-23.718,-76.761,-67.521,21.994,44.76,-47.934,-75.053,-24.667,39.029,55.29,-2.9141,-52.476,-0.59851,45.497,47.01,-2.8644,-50.747,-37.473,-6.8471,-5.9628,-19.164,-96.69,-61.578,-21.639,40.943,126.62,-92.057,-64.126,19.656,73.735,129.24,-116.99,-78.072,19.729,37.399,71.812,-118.8,-125.76,-73.261,-33.91,10.268,-35.009,-47.821,-46.323,-33.955,-31.873,-81.429,-20.89,54.21,69.498,4.0262,-48.041,6.2072,57.333,65.366,7.6306,-45.569,-27.748,6.4792,5.4441,-5.3758,-135.63,-95.854,-40.466,20.539,-46.829,-52.464,-40.285,-37.327,-35.691,-40.145,-43.418,-48.741,-33.238,101.48,208.13,-27.993,-7.318,13.98,87.838,114.45,-48.163,-75.935,13.137,77.228,195.88,-71.218,19.948,75.68,88.264,89.463,-94.851,-28.485,12.639,12.84,7.2647,-71.694,56.506,150.84,43.959,-43.152,-35.899,39.285,71.664,-4.9451,-25.258,-51.138,23.132,134.83,265.44,77.843,9.2452,28.037,38.831,133.71,72.603,-45.759,-38.706,-33.078,-41.478,-0.6107,-23.897,-54.732,29.949,90.643,225.01,-35.808,48.277,97.972,110.63,119.18,-49.717,18.04,48.875,48.864,49.877,-101.86,-45.974,-2.5327,-2.4401,-18.306,-119.9,-70.882,-7.2454,-21.793,-30.366,-31.685,34.561,151.14,284.12,101.43,37.807,51.936,66.298,164.79,103.59,-5.7093,-3.2586,2.8958,-3.2508,36.278,-55.29,-49.365,-57.6,-47.263,-19.499,-63.676,-72.634,-69.503,-78.68,-75.24,-15.905,57.461,101.23,106.75,104.05,-56.71,-2.3025,48.169,55.376,39.273,-65.835,-16.526,58.41,48.592,38.651,-76.688,-69.741,12.572,11.344,11.993,-60.966,-91.864,-80.223,-90.155,-40.03,73.511,76.117,77.723,73.173,116.69,24.35,31.998,20.16,30.435,61.375,27.366,20.178,16.598,7.2404,9.6366,-20.738,-13.69,-8.2481,-40.888,-61.98,-103.75,-108.37,-58.107,-68.781,-61.963,-33.662,25.127,106.48,97.745,88.709,-40.985,-32.397,54.621,61.248,64.849,-20.891,-47.575,-38.971,-46.728,4.4735,-36.824,-67.362,-101.57,-77.259,-2.823,-39.234,-64.802,-39.151,-44.401,25.418,81.159,72.637,63.08,50.608,56.67,33.718,40.393,43.079,5.6021,-16.693,-59.377,-59.578,-9.081,-20.912,-12.955,-122.54,-97.692,-18.735,-17.912,-28.761,-64.623,-66.751,7.924,0.75523,13.701,9.3562,-15.194,-7.7487,-13.382,39.423,-3.0486,-36.17,-65.504,-47.378,33.114,-6.3256,-29.374,-1.8483,-10.113,66.411,-7.9311,-70.779,-58.777,-3.9017,29.985,-8.0421,-59.225,-3.0477,-0.81559,12.927,-34.161,-34.41,11.22,1.3759,7.8891,-92.651,-71.752,8.1532,7.5203,-1.3653,-32.94,-36.328,45.779,32.889,44.66,-86.438,-30.456,5.3345,22.956,33.621,-36.422,-32.242,-12.176,37.812,59.487,-12.511,-40.658,-7.4124,-21.103,61.83,-11.485,-74.039,-66.838,-8.6311,24.803,-14.657,-62.526,-1.7552,-6.9373,11.384,-10.851,-54.276,6.2078,61.832,105.84,-88.841,-71.314,-55.157,-26.197,-23.793,-54.185,-59.444,23.964,7.9178,19.746,-110.03,-50.055,-12.271,9.0962,18.889,-50.952,-53.722,-29.208,14.867,53.014,-45.693,2.2897,50.15,133.1,93.079,-61.382,-34.605,-29.207,-38.739,-46.374,71.981,109.9,145.31,348.09,253.66,56.033,46.374,42.716,123.33,111.52,35.034,44.506,61.298,121.11,176.64,-58.002,-6.4138,-10.186,-0.68003,-2.1228,-106.75,-95.632,-105.23,-74.628,-78.302,112.45,317.03,235.9,141.03,94.953,15.802,102.28,102.96,80.178,74.324,26.639,98.598,162.36,231.6,82.154,-44.547,-19.26,-4.34,0.82885,15.266,-130.77,-90.35,-84.492,-123.01,-82.175,108.59,116.44,132.64,207.71,275.84,18.694,65.744,58.088,73.294,74.115,-18.857,-12.227,-18.208,18.346,10.533,-52.81,-79.719,-27.004,-43.003,-46.883,-109.78,-113.13,-24.826,-12.136,-46.02,97.407,175.55,244.44,320.15,159.6,26.772,52.525,62.702,78.294,94.258,-41.675,-0.78391,-0.053439,-36.51,9.8571,-50.45,-57.271,-50.642,-64.816,-45.31,-54.876,-32.568,-56.177,-111.37,-94.964,21.268,27.967,22.157,66.22,60.023,-0.31011,-25.934,22.306,17.939,14.735,-49.093,-43.24,53.987,68.18,33.654,-14.252,-60.367,19.027,87.864,18.346,2.7528,-72.596,-42.926,-60.374,-49.148,12.248,54.997,59.53,20.889,66.441,14.265,13.287,16.912,1.5473,25.996,38.937,60.713,34.476,-36.74,-17.37,0.65467,85.415,25.097,-56.962,-22.937,-49.065,-60.65,-43.678,-86.191,3.712,-27.199,-16.588,90.606,104.9,64.09,14.675,-32.45,46.56,124.07,61.663,31,-45.021,-11.121,-30.628,-11.327,53.538,-58.79,-84.576,-99.571,-114.8,43.904,-53.87,-95.48,-76.954,-82.726,74.925,94.02,62.261,-13.483,14.179,32.114,122.13,62.143,-30.585,0.42298,-21.281,-27.136,-9.1597,-52.312,36.569,-93.2,-103.37,-104.85,-78.762,31.887,-108.32,-85.396,-79.485,-29.814,81.355,54.764,-19.194,24.245,-3.5573,15.231,79.697,-34.512,-59.341,-78.134,-89.319,81.357,-13.758,-65.083,-45.798,-50.536,90.517,-28.98,-78.41,-29.007,-75.405,141.93,47.158,-20.521,9.8896,-9.6372,4.0532,-8.036,10.381,-33.921,57.854,-69.823,-82.621,-86.332,-55.92,57.785,-78.075,-58.239,-53.297,-1.4541,109.3,-87.905,-44.712,-78.785,-11.593,86.525,-27.784,-2.5465,-24.153,49.797,144.97,39.325,-57.462,-113.09,-97.154,-106.14,49.889,-63.094,-115.1,-65.236,-117.32,91.815,12.237,-55.095,-23.477,-41.572,208.13,136.13,116.87,145.44,171.75,-54.013,-61.27,-30.323,-11.622,40.677,-130.81,-112.56,-116.86,-67.893,43.72,-135.29,-79.158,-122.49,-58.84,23.967,-76.568,-43.059,-62.114,-2.1788,85.583,82.094,108.33,134.84,224.58,236.24,-55.007,-33.879,12.176,57.059,95.155,41.113,60.087,171.68,218.62,34.667,14.177,-9.7298,2.4212,29.082,-65.725,48.991,195.54,130.71,77.057,-11.867,-24.624,-6.9321,-12.481,3.1664,-15.716,-41.49,-81.114,-65.584,-43.518,-75.924,194.62,252.97,70.495,15.816,6.0819,18.044,54.577,-34.357,-33.071,21.522,155.49,104.45,28.823,-34.287,3.1224,-0.61078,26.733,21.848,-31.896,-66.732,-48.866,-13.421,-40.768,-73.118,-102.02,81.103,237.57,168.06,111.33,18.391,13.019,32.167,18.65,36.428,20.36,-0.76145,-37.685,-21.484,4.8704,-32.08,-53.891,-64.996,-70.494,-28.984,-32.97,-70.338,-98.221,-40.275,-1.9699,-3.128,196.69,140.12,55.189,-2.4729,41.677,34.103,60.697,52.688,0.19692,-22.669,-5.005,29.388,-2.1843,-29.649,-58.326,-53.8,-1.4888,2.1477,-59.265,-62.073,-19.884,22.88,28.64,-77.024,-98.738,20.22,-11.37,8.2266,39.445,-1.9852,-20.63,-27.005,-38.721,15.686,8.6118,-36.657,-53.271,14.824,57.797,50.279,-29.647,-57.563,62.917,87.678,39.359,1.0451,-80.342,-53.741,-47.186,-91.648,13.158,50.266,17.387,-16.976,-43.529,-30.335,26.219,29.023,-32.365,-40.619,23.743,71.279,72.096,-40.94,-68.094,64.881,98.388,62.447,-80.108,-32.962,-51.096,-32.395,-66.477,-92.634,-35.031,-16.165,-32.216,38.317,86.244,76.37,-7.251,-31.135,90.453,118.64,75.981,23.549,-52.675,-24.701,-13.779,-59.904,51.316,-92.197,-117.83,-96.551,-118.48,72.992,-47.366,-96.803,-113.92,-107.96,44.33,97.11,93.978,-24.89,-54.277,88.26,123.97,94.389,-52.994,-14.979,-18.783,-2.6415,-37.495,-67.911,-8.6221,-115.81,-88.348,-98.379,-82.23,10.023,-90.714,-102.43,-90.618,-91.845,33.458,51.033,-17.522,8.4766,19.529,-24.496,83.873,-51.46,-79.023,-68.017,-83.459,108.68,-4.7457,-50.026,-76.326,-71.55,77.199,-9.3636,-108.95,-76.067,-98.181,139.13,54.615,-46.792,-34.385,-59.329,24.222,34.483,-1.0675,-39.026,34.399,-72.416,-55.539,-63.904,-42.935,47.673,-41.115,-64.896,-53.789,-42.261,79.97,-103.63,-63.983,-81.329,-64.901,80.816,-30.941,-20.557,-42.734,-7.7576,84.656,56.578,-56.957,-102.62,-121.39,-114.67,28.973,-51.903,-150.59,-113.71,-136.03,84.685,11.856,-79.809,-74.418,-98.417,204.47,172.76,85.03,81.788,45.993,100.04,77.465,36.257,-18.591,-38.583,-82.889,-102.15,-91.328,-76.678,39.524,-135.91,-92.423,-107.89,-95.023,46.218,-52.707,-54.023,-70.556,-32.625,58.456,116.08,111.63,80.167,101.12,148.03,59.222,4.4388,-13.982,-36.862,-23.782,-6.2775,61.918,177.95,106.9,-53.364,-20.559,15.231,64.019,59.733,-54.907,70.437,270.35,151.17,63.726,-33.065,69.293,117.17,22.54,15.972,4.0791,-13.698,-34.754,-83.599,-79.198,-59.795,236.02,159.52,-7.8556,-43.898,-21.869,111.64,114.13,5.8723,-7.8653,-9.1699,204.12,123.19,36.773,-57.633,-50.697,71.299,72.107,72.062,32.853,-53.976,-40.044,-24.912,14.318,-14.659,-107.7,96.202,306.62,177.57,81.018,-2.8475,111.47,160.07,59.896,49.982,43.83,30.061,15.119,-38.666,-27.717,-5.8762,-26.244,-18.815,-54.378,-58.991,-36.337,-60.625,-87.262,-108.88,-82.896,-70.983,242.77,144.42,60.31,-33.956,-24.841,115.49,105.99,105.11,57.87,-13.957,8.8148,23.724,56.863,37.081,-54.628,-9.3237,-9.5585,21.142,-42.02,-68.551,-59.397,-31.499,-3.9792,-79.625,-117.56,113.86,101.32,42.965,54.134,84.315,60.124,72.423,34.076,34.119,54.743,29.993,10.981,-7.588,19.815,28.335,-32.387,-54.914,13.259,-8.6061,-10.768,-69.448,-63.23,-81.975,-108.25,-138.04,64.185,78.902,112.39,90.464,-3.8278,57.351,51.462,80.853,14.642,-14.366,17.128,45.214,64.932,-14.565,-46.271,36.86,19.461,20.591,-47.931,-44.071,-59.065,-80.503,-103.06,-122.74,-89.798,76.65,55.121,35.835,71.723,81.452,12.025,-7.7795,68.41,45.391,51.276,-26.498,-15.15,-27.439,-54.419,-83.749,7.9323,-32.867,-45.696,-103.38,-117.47,40.685,20.092,-7.5501,-54.713,-82.277,55.422,89.139,113.12,28.993,-8.8226,88.585,61.602,70.25,-10.594,-2.4193,-12.816,-38.179,-60.803,-73.526,-41.243,-31.169,-79.573,-95.525,-84.782,-2.4011,9.4654,-33.159,-56.246,-76.049,-12.696,-8.4722,5.9861,0.40899,-24.304,-55.07,28.336,-6.9241,-14.93,-70.207,-83.76,71.086,54.909,28.861,-21.811,-46.284,41.9,23.336,-8.7151,-29.319,-56.644,81.324,40.971,-17.163,-17.397,-43.823,21.505,-6.7,-31.44,-39.705,-9.9293,7.0345,-49.542,-57.975,-50.86,33.48,50.155,-2.8033,-21.303,-39.183,26.135,12.882,-4.8824,-28.627,-14.971,-0.66456,6.9432,13.653,-7.6857,-22.138,-8.0669,41.314,26.697,6.3369,-44.841,-76.074,22.943,4.0311,-30.011,-55.269,-82.35,61.952,16.478,-33.992,-42.099,-67.424,106.44,154.55,22.291,9.6716,-41.43,-44.132,-36.246,-34.845,-35.87,-54.365,36.403,-16.845,-37.895,-52.593,13.311,-0.87228,-20.144,-40.525,-26.864,-12.105,-1.7247,-0.16548,-17.428,-32.515,-15.914,64.248,63.296,11.197,-32.834,9.6335,-30.851,-30.299,-45.228,-66.506,-69.137,-31.858,6.0172,60.38,-75.39,-124.58,-0.65327,22.4,25.303,-31.917,-42.452,6.2391,109.79,17.22,-56.542,-105.28,195.05,205.43,29.667,18.846,6.8008,126.83,73.022,-25.46,-49.761,-32.435,120.31,-31.776,-74.933,-45.367,-31.623,93.409,27.181,22.311,-12.871,-55.445,82.479,4.0268,-34.37,-103.88,-67.506,96.424,86.377,88.726,87.979,-14.315,39.384,14.647,53.987,41.846,-50.022,7.591,103.54,2.5743,-67.906,-108.79,198.76,198.96,28.627,14.02,7.445,133.81,78.596,-19.882,-42.906,-19.732,60.73,8.9286,-50.742,-73.329,-10.182,30.04,-37.747,-120.23,-101.85,-84.124,81.974,-4.0268,-43.016,-106.2,-66.427,104.85,85.281,83.015,85.386,-10.259,46.819,19.077,59.527,50.538,-31.397,12.134,-10.153,47.738,-5.8349,-58.348,-60.103,-35.709,-14.759,-40.539,-111.94,185.79,124.1,12.138,-16.337,12.691,101.91,52.46,-11.184,-32.794,26.057,76.316,12.705,-73.202,-52.642,-40.805,-7.8524,8.9877,-48.844,-77.498,-82.694,-47.262,-42.365,-49.704,-86.608,-120.98,66.234,33.928,70.052,62.112,-23.097,36.91,12.846,71.548,15.249,-41.306,-24.249,-3.3166,11.174,-17.14,-86.992,5.5031,-26.29,-33.249,-35.788,-58.924,2.8819,-41.024,-69.774,-83.573,-69.943,111.79,43.902,-47.814,-20.979,-9.735,23.497,42.194,-13.913,-45.488,-52.062,-17.493,-10.826,-17.184,-58.883,-93.774,-16.957,29.176,-1.4619,-66.76,-103.25,-33.638,53.107,17.849,-50.824,-86.081,-2.6327,20.946,33.58,2.7417,-72.85,32.004,-7.1649,-11.335,-19.753,-39.977,31.739,-21.64,-52.359,-62.397,-42.775,43.023,-30.608,-64.305,-54.36,-53.147,49.966,-16.701,-46.895,-62.411,-55.586,-0.71569,0.39655,-10.965,-50.255,-85.829,-0.2473,46.757,10.786,-51.444,-92.129,-17.206,66.412,26.061,-36.93,-70.155,-35.455,27.661,32.519,-24.554,-50.341,-15.243,-13.603,-35.213,-73.85,-54.673,40.802,-10.422,-40.114,-49.309,-33.879,50.827,-17.185,-52.986,-42.74,-48.468,69.448,-5.0212,-36.938,-57.189,-41.865,71.342,9.3859,-6.5433,-31.065,-114.61,0.81346,-33.44,-14.585,-108.95,-94.055,-6.1344,94.297,47.113,-29.463,-69.34,-23.096,48.102,55.181,-15.852,-45.315,0.21986,4.6454,-14.514,-65.389,-39.933,-28.755,22.373,-52.326,-101.67,-154.05,-33.756,-35.018,-34.294,-36.056,-51.246,108.48,16.623,-24.055,-42.09,-30.094,110.57,35.144,13.847,-10.594,-105.46,38.948,-6.9665,13.158,-84.505,-74.695,-14.643,-53.712,-100.52,-161.21,-123.98,-32.118,-30.692,-45.006,-40.014,-53.137,75.24,102.7,55.561,-91.063,-54.453,79.817,80.959,80.979,-28.959,36.117,8.6312,-19.957,-28.778,-144.98,-118.94,153,89.913,-11.176,-36.059,-3.2288,143.58,100.37,-22.915,-79.693,6.6872,61.212,-74.6,-22.827,83.152,103.79,93.607,-9.878,64.285,95.39,96.972,-12.537,-129.6,-86.464,-92.924,36.935,3.3793,-13.441,37.632,49.696,26.728,-13.24,-53.827,51.137,79.456,-20.856,18.238,-12.537,-26.912,-137.73,-115.45,163.27,94.737,-2.8092,-24.153,9.8571,160.66,114.11,-6.4813,-52.489,37.205,96.802,36.112,-53.911,-66.072,-40.358,108.77,22.633,-91.224,-110.56,-87.842,13.596,-114.39,-73.196,-69.53,63.318,35.709,11.744,61.227,75.442,52.543,22.285,-20.21,82.557,122,18.348,-24.928,-33.173,-3.4282,4.7496,17.185,-60.274,-78.299,-47.849,-2.5224,-10.449,138.57,76.034,-27.386,-65.409,13.959,86.71,17.547,-64.632,-74.032,-44.095,103.08,19.381,-88.772,-98.392,-84.106,74.099,53.412,-95.02,-125.65,-110.57,17.016,99.022,-31.04,-43.392,-95.417,15.376,-23.374,71.025,102.97,6.5222,-16.22,-31.114,1.5078,3.629,12.677,-42.356,-56.787,-36.71,6.1392,2.7598,-50.484,-74.69,-74.83,-39.144,6.092,18.77,8.3975,-56.93,-40.636,-21.954,82.481,-3.8905,-110.78,-117.53,-101.77,53.203,41.47,-103.55,-139.35,-126.77,2.6295,87.779,-39.56,-53.378,-104.12,6.2397,98.743,26.662,-2.2494,-66.473,-9.3671,106.3,18.764,-3.1668,-58.953,-52.876,-71.801,-48.369,-11.305,-13.589,-56.825,-88.419,-83.095,-52.292,-2.8482,18.001,4.7541,-59.324,-50.644,-33.893,83.785,55.921,-12.214,-53.558,-22.7,74.725,55.174,-5.8715,-57.016,-82.149,-28.102,44.124,-83.484,-98.779,-138.83,-21.481,64.674,-6.2769,-39.219,-96.462,-34.276,75.318,-5.0913,-31.964,-83.357,-35.135,76.772,22.423,-2.6534,-9.5665,-42.334,21.863,-1.9594,6.9326,-49.971,-24.618,-39.903,-89.716,-83.471,-69.145,47.94,20.073,-43.516,-80.826,-58.393,42.942,25.984,-27.291,-85.314,-97.992,72.394,64.055,58.515,-64.442,-100.26,45.373,73.285,16.723,-73.187,-118.11,-24.37,98.385,0.73102,-22.212,-84.674,-22.949,112.45,44.321,13.734,4.5822,-29.211,52.27,21.696,36.389,-33.477,-112.6,-106.3,-73.382,-124.38,-143.69,-24.417,-34.815,-39.648,-39.603,-45.094,66.723,45.386,-23.022,-87.85,-96.616,102.22,89.335,79.717,-57.007,-100.28,74.502,106.76,41.199,-61.119,-114.07,-34.764,-79.688,-91.263,-209.43,-173.34,-37.168,-37.271,-39.405,-45.667,-39.27
